Language model created by QuickLM on Sat Apr 23 04:48:52 EDT 2016
Copyright (c) 1996-2010 Carnegie Mellon University and Alexander I. Rudnicky

The model is in standard ARPA format, designed by Doug Paul while he was at MITRE.

The code that was used to produce this language model is available in Open Source.
Please visit http://www.speech.cs.cmu.edu/tools/ for more information

The (fixed) discount mass is 0.5. The backoffs are computed using the ratio method.
This model based on a corpus of 26 sentences and 48 words

\data\
ngram 1=48
ngram 2=78
ngram 3=62

\1-grams:
-0.9616 </s> -0.3010
-0.9616 <s> -0.2446
-2.3766 A -0.2992
-2.3766 AMAZING -0.2508
-2.3766 ARE -0.2937
-2.3766 ASSISTANCE -0.2508
-2.3766 BYE! -0.2992
-2.3766 CAFE -0.2992
-2.3766 CAMPUS? -0.2508
-1.7745 CAN -0.2899
-2.3766 CHARLIE -0.2508
-2.3766 CHEERS -0.2508
-2.3766 CONTINUE -0.2974
-2.0755 CUTE -0.2508
-2.3766 DOING -0.2508
-2.3766 FIND -0.2992
-2.3766 GOODBYE -0.2508
-2.3766 HELLO -0.2508
-2.0755 HELP -0.2487
-2.3766 HELP? -0.2508
-2.3766 HEY -0.2992
-2.3766 HI -0.2508
-2.0755 HOW -0.2843
-2.3766 I -0.2992
-1.7745 IS -0.2918
-2.3766 LABS? -0.2508
-2.3766 LIBRARY? -0.2508
-2.3766 ME -0.2508
-2.3766 ME? -0.2508
-2.3766 NAME? -0.2508
-2.3766 ON -0.2992
-2.3766 PAUSE -0.2974
-2.3766 REALLY -0.2992
-2.3766 SEE -0.2918
-2.3766 SO -0.2974
-2.0755 SPEECH -0.2508
-2.3766 TALK -0.2992
-2.3766 TALK? -0.2508
-1.7745 THE -0.2937
-2.3766 THERE -0.2508
-2.3766 TO -0.2992
-2.3766 TOILET? -0.2508
-2.3766 WASHROOM? -0.2508
-2.3766 WHAT -0.2937
-1.6776 WHERE -0.2843
-2.3766 WONDERFUL -0.2508
-1.6776 YOU -0.2425
-2.3766 YOUR -0.2992

\2-grams:
-1.7160 <s> AMAZING 0.0000
-1.7160 <s> ASSISTANCE 0.0000
-1.7160 <s> BYE! 0.0000
-1.4150 <s> CAN -0.0969
-1.7160 <s> CHEERS 0.0000
-1.7160 <s> CONTINUE 0.0000
-1.7160 <s> CUTE 0.0000
-1.7160 <s> GOODBYE 0.0000
-1.7160 <s> HELLO 0.0000
-1.4150 <s> HELP 0.0000
-1.7160 <s> HEY 0.0000
-1.7160 <s> HI 0.0000
-1.4150 <s> HOW 0.0000
-1.7160 <s> PAUSE 0.0000
-1.7160 <s> SEE 0.0000
-1.7160 <s> SO 0.0000
-1.7160 <s> WHAT 0.0000
-1.0170 <s> WHERE 0.0000
-1.7160 <s> WONDERFUL 0.0000
-0.3010 A CAFE 0.0000
-0.3010 AMAZING </s> -0.3010
-0.3010 ARE THE -0.2430
-0.3010 ASSISTANCE </s> -0.3010
-0.3010 BYE! CHARLIE 0.0000
-0.3010 CAFE ON 0.0000
-0.3010 CAMPUS? </s> -0.3010
-0.9031 CAN I 0.0000
-0.4260 CAN YOU -0.1461
-0.3010 CHARLIE </s> -0.3010
-0.3010 CHEERS </s> -0.3010
-0.3010 CONTINUE SPEECH 0.0000
-0.3010 CUTE </s> -0.3010
-0.3010 DOING </s> -0.3010
-0.3010 FIND A 0.0000
-0.3010 GOODBYE </s> -0.3010
-0.3010 HELLO </s> -0.3010
-0.6021 HELP </s> -0.3010
-0.6021 HELP ME 0.0000
-0.3010 HELP? </s> -0.3010
-0.3010 HEY THERE 0.0000
-0.3010 HI </s> -0.3010
-0.6021 HOW CAN -0.0969
-0.6021 HOW YOU -0.2553
-0.3010 I FIND 0.0000
-0.4260 IS THE -0.0969
-0.9031 IS YOUR 0.0000
-0.3010 LABS? </s> -0.3010
-0.3010 LIBRARY? </s> -0.3010
-0.3010 ME </s> -0.3010
-0.3010 ME? </s> -0.3010
-0.3010 NAME? </s> -0.3010
-0.3010 ON CAMPUS? 0.0000
-0.3010 PAUSE SPEECH 0.0000
-0.3010 REALLY TALK? 0.0000
-0.3010 SEE YOU -0.2553
-0.3010 SO CUTE 0.0000
-0.3010 SPEECH </s> -0.3010
-0.3010 TALK TO 0.0000
-0.3010 TALK? </s> -0.3010
-0.9031 THE LABS? 0.0000
-0.9031 THE LIBRARY? 0.0000
-0.9031 THE TOILET? 0.0000
-0.9031 THE WASHROOM? 0.0000
-0.3010 THERE </s> -0.3010
-0.3010 TO ME? 0.0000
-0.3010 TOILET? </s> -0.3010
-0.3010 WASHROOM? </s> -0.3010
-0.3010 WHAT IS -0.2430
-1.0000 WHERE ARE 0.0000
-1.0000 WHERE CAN -0.2430
-0.5229 WHERE IS -0.0969
-0.3010 WONDERFUL </s> -0.3010
-1.0000 YOU </s> -0.3010
-1.0000 YOU DOING 0.0000
-1.0000 YOU HELP? 0.0000
-1.0000 YOU REALLY 0.0000
-1.0000 YOU TALK 0.0000
-0.3010 YOUR NAME? 0.0000

\3-grams:
-0.3010 <s> AMAZING </s>
-0.3010 <s> ASSISTANCE </s>
-0.3010 <s> BYE! CHARLIE
-0.3010 <s> CAN YOU
-0.3010 <s> CHEERS </s>
-0.3010 <s> CONTINUE SPEECH
-0.3010 <s> CUTE </s>
-0.3010 <s> GOODBYE </s>
-0.3010 <s> HELLO </s>
-0.6021 <s> HELP </s>
-0.6021 <s> HELP ME
-0.3010 <s> HEY THERE
-0.3010 <s> HI </s>
-0.6021 <s> HOW CAN
-0.6021 <s> HOW YOU
-0.3010 <s> PAUSE SPEECH
-0.3010 <s> SEE YOU
-0.3010 <s> SO CUTE
-0.3010 <s> WHAT IS
-1.0000 <s> WHERE ARE
-1.0000 <s> WHERE CAN
-0.5229 <s> WHERE IS
-0.3010 <s> WONDERFUL </s>
-0.3010 A CAFE ON
-0.3010 ARE THE LABS?
-0.3010 BYE! CHARLIE </s>
-0.3010 CAFE ON CAMPUS?
-0.3010 CAN I FIND
-0.7782 CAN YOU HELP?
-0.7782 CAN YOU REALLY
-0.7782 CAN YOU TALK
-0.3010 CONTINUE SPEECH </s>
-0.3010 FIND A CAFE
-0.3010 HELP ME </s>
-0.3010 HEY THERE </s>
-0.3010 HOW CAN YOU
-0.3010 HOW YOU DOING
-0.3010 I FIND A
-0.7782 IS THE LIBRARY?
-0.7782 IS THE TOILET?
-0.7782 IS THE WASHROOM?
-0.3010 IS YOUR NAME?
-0.3010 ON CAMPUS? </s>
-0.3010 PAUSE SPEECH </s>
-0.3010 REALLY TALK? </s>
-0.3010 SEE YOU </s>
-0.3010 SO CUTE </s>
-0.3010 TALK TO ME?
-0.3010 THE LABS? </s>
-0.3010 THE LIBRARY? </s>
-0.3010 THE TOILET? </s>
-0.3010 THE WASHROOM? </s>
-0.3010 TO ME? </s>
-0.3010 WHAT IS YOUR
-0.3010 WHERE ARE THE
-0.3010 WHERE CAN I
-0.3010 WHERE IS THE
-0.3010 YOU DOING </s>
-0.3010 YOU HELP? </s>
-0.3010 YOU REALLY TALK?
-0.3010 YOU TALK TO
-0.3010 YOUR NAME? </s>

\end\
