Language model created by QuickLM on Mon May  2 09:57:02 EDT 2016
Copyright (c) 1996-2010 Carnegie Mellon University and Alexander I. Rudnicky

The model is in standard ARPA format, designed by Doug Paul while he was at MITRE.

The code that was used to produce this language model is available in Open Source.
Please visit http://www.speech.cs.cmu.edu/tools/ for more information

The (fixed) discount mass is 0.5. The backoffs are computed using the ratio method.
This model based on a corpus of 52 sentences and 92 words

\data\
ngram 1=92
ngram 2=160
ngram 3=159

\1-grams:
-1.1279 </s> -0.3010
-1.1279 <s> -0.2503
-2.5428 A -0.2998
-2.8439 ABOUT -0.3004
-2.8439 AMAZING -0.2674
-2.8439 ARCHITECTURE -0.2948
-2.5428 ARE -0.2852
-2.8439 ART -0.2948
-2.8439 ASSISTANCE -0.2674
-2.8439 ATM -0.2967
-2.8439 BIOLOGY -0.2948
-2.8439 BOOK? -0.2674
-2.8439 BORROW -0.2998
-2.8439 BUSINESS -0.2948
-2.8439 BYE! -0.3004
-2.8439 CAFE -0.3004
-2.8439 CAMPUS? -0.2674
-1.4459 CAN -0.2839
-2.8439 CASH -0.3004
-2.8439 CASHPOINTS -0.2967
-2.8439 CHARLIE -0.2674
-2.8439 CHEERS -0.2674
-2.8439 CHEMISTRY -0.2979
-2.8439 COFFEE -0.2967
-2.8439 COMPUTING -0.2948
-2.8439 CONTINUE -0.2998
-2.5428 CUTE -0.2674
-2.8439 DAY -0.2998
-1.8439 DEPARTMENT? -0.2674
-2.8439 DO? -0.2674
-2.8439 DOING -0.2674
-2.8439 EAT? -0.2674
-2.8439 ENGINEERING -0.2948
-2.8439 ENGLISH -0.2979
-2.1449 FACULTY? -0.2674
-1.5428 FIND -0.2832
-2.8439 GEOGRAPHY -0.2948
-2.8439 GEOLOGY -0.2967
-2.8439 GOODBYE -0.2674
-2.8439 HELLO -0.2674
-2.5428 HELP -0.2667
-2.8439 HELP? -0.2674
-2.8439 HEY -0.3004
-2.8439 HI -0.2674
-2.5428 HOW -0.2820
-1.5014 I -0.2871
-2.8439 IN -0.3004
-1.9988 IS -0.2852
-2.8439 LABS? -0.2674
-2.8439 LIBRARY? -0.2674
-2.8439 MACHINES? -0.2674
-2.8439 MARINE -0.2948
-2.8439 MATHEMATICS -0.2979
-2.8439 ME -0.2674
-2.8439 ME? -0.2674
-2.8439 MUSIC -0.2979
-2.8439 NAME? -0.2674
-2.8439 NEAREST -0.3004
-2.8439 ON -0.3004
-1.9988 OR -0.2941
-2.8439 PAUSE -0.2998
-2.8439 PLYMOUTH -0.2967
-2.8439 PSYCHOLOGY -0.2979
-2.8439 REALLY -0.3004
-2.8439 RECEPTION? -0.2674
-2.8439 ROBOTICS -0.2967
-2.8439 ROBOTS? -0.2674
-2.8439 SEE -0.2979
-2.8439 SHOP -0.2674
-2.8439 SO -0.2998
-2.8439 SOMETHING -0.2992
-2.5428 SPEECH -0.2674
-2.8439 SPORTS -0.2948
-2.8439 STAFF? -0.2674
-2.8439 SUPERMARKET? -0.2674
-2.8439 TALK -0.2992
-2.8439 TALK? -0.2674
-2.8439 TEA -0.2967
-2.8439 TEACHING -0.2948
-1.4636 THE -0.2858
-2.8439 THERE -0.2674
-2.3667 TO -0.2992
-2.5428 TODAY? -0.2674
-2.8439 TOILET? -0.2674
-2.8439 VISIT -0.3004
-2.8439 WASHROOM? -0.2674
-2.8439 WEATHER -0.2998
-2.1449 WHAT -0.2787
-1.4125 WHERE -0.2793
-2.8439 WONDERFUL -0.2674
-2.1449 YOU -0.2647
-2.8439 YOUR -0.3004

\2-grams:
-2.0170 <s> AMAZING 0.0000
-2.0170 <s> ASSISTANCE 0.0000
-2.0170 <s> BYE! 0.0000
-1.7160 <s> CAN -0.2742
-2.0170 <s> CHEERS 0.0000
-2.0170 <s> CONTINUE 0.0000
-2.0170 <s> CUTE 0.0000
-2.0170 <s> GOODBYE 0.0000
-2.0170 <s> HELLO 0.0000
-1.7160 <s> HELP 0.0000
-2.0170 <s> HEY 0.0000
-2.0170 <s> HI 0.0000
-1.7160 <s> HOW 0.0000
-2.0170 <s> PAUSE 0.0000
-2.0170 <s> SEE 0.0000
-2.0170 <s> SHOP 0.0000
-2.0170 <s> SO 0.0000
-1.4150 <s> WHAT -0.0792
-0.5857 <s> WHERE 0.0000
-2.0170 <s> WONDERFUL 0.0000
-0.6021 A BOOK? 0.0000
-0.6021 A CAFE 0.0000
-0.3010 ABOUT ROBOTICS 0.0000
-0.3010 AMAZING </s> -0.3010
-0.3010 ARCHITECTURE DEPARTMENT? 0.0000
-0.6021 ARE CASHPOINTS 0.0000
-0.6021 ARE THE -0.2919
-0.3010 ART DEPARTMENT? 0.0000
-0.3010 ASSISTANCE </s> -0.3010
-0.3010 ATM OR -0.2688
-0.3010 BIOLOGY DEPARTMENT? 0.0000
-0.3010 BOOK? </s> -0.3010
-0.3010 BORROW A -0.1761
-0.3010 BUSINESS DEPARTMENT? 0.0000
-0.3010 BYE! CHARLIE 0.0000
-0.3010 CAFE ON 0.0000
-0.3010 CAMPUS? </s> -0.3010
-0.3565 CAN I 0.0000
-1.2218 CAN YOU -0.1461
-0.3010 CASH MACHINES? 0.0000
-0.3010 CASHPOINTS OR -0.2688
-0.3010 CHARLIE </s> -0.3010
-0.3010 CHEERS </s> -0.3010
-0.3010 CHEMISTRY FACULTY? 0.0000
-0.3010 COFFEE OR -0.2688
-0.3010 COMPUTING DEPARTMENT? 0.0000
-0.3010 CONTINUE SPEECH 0.0000
-0.3010 CUTE </s> -0.3010
-0.3010 DAY TODAY? 0.0000
-0.3010 DEPARTMENT? </s> -0.3010
-0.3010 DO? </s> -0.3010
-0.3010 DOING </s> -0.3010
-0.3010 EAT? </s> -0.3010
-0.3010 ENGINEERING DEPARTMENT? 0.0000
-0.3010 ENGLISH FACULTY? 0.0000
-0.3010 FACULTY? </s> -0.3010
-1.6021 FIND A -0.1761
-1.6021 FIND ABOUT 0.0000
-1.6021 FIND TEA 0.0000
-0.3716 FIND THE -0.1112
-0.3010 GEOGRAPHY DEPARTMENT? 0.0000
-0.3010 GEOLOGY OR -0.2688
-0.3010 GOODBYE </s> -0.3010
-0.3010 HELLO </s> -0.3010
-0.6021 HELP </s> -0.3010
-0.6021 HELP ME 0.0000
-0.3010 HELP? </s> -0.3010
-0.3010 HEY THERE 0.0000
-0.3010 HI </s> -0.3010
-0.6021 HOW CAN -0.2742
-0.6021 HOW YOU -0.2553
-1.6435 I BORROW 0.0000
-0.3424 I FIND 0.0000
-1.6435 I VISIT 0.0000
-0.3010 IN PLYMOUTH 0.0000
-0.3680 IS THE -0.2430
-1.1461 IS YOUR 0.0000
-0.3010 LABS? </s> -0.3010
-0.3010 LIBRARY? </s> -0.3010
-0.3010 MACHINES? </s> -0.3010
-0.3010 MARINE DEPARTMENT? 0.0000
-0.3010 MATHEMATICS FACULTY? 0.0000
-0.3010 ME </s> -0.3010
-0.3010 ME? </s> -0.3010
-0.3010 MUSIC FACULTY? 0.0000
-0.3010 NAME? </s> -0.3010
-0.3010 NEAREST SUPERMARKET? 0.0000
-0.3010 ON CAMPUS? 0.0000
-1.1461 OR ATM 0.0000
-1.1461 OR CASH 0.0000
-1.1461 OR COFFEE 0.0000
-1.1461 OR GEOGRAPHY 0.0000
-1.1461 OR ROBOTS? 0.0000
-1.1461 OR SOMETHING 0.0000
-1.1461 OR WHAT -0.2553
-0.3010 PAUSE SPEECH 0.0000
-0.3010 PLYMOUTH OR -0.2688
-0.3010 PSYCHOLOGY FACULTY? 0.0000
-0.3010 REALLY TALK? 0.0000
-0.3010 RECEPTION? </s> -0.3010
-0.3010 ROBOTICS OR -0.2688
-0.3010 ROBOTS? </s> -0.3010
-0.3010 SEE YOU -0.2553
-0.3010 SHOP </s> -0.3010
-0.3010 SO CUTE 0.0000
-0.3010 SOMETHING TO -0.2218
-0.3010 SPEECH </s> -0.3010
-0.3010 SPORTS DEPARTMENT? 0.0000
-0.3010 STAFF? </s> -0.3010
-0.3010 SUPERMARKET? </s> -0.3010
-0.3010 TALK TO -0.2218
-0.3010 TALK? </s> -0.3010
-0.3010 TEA OR -0.2688
-0.3010 TEACHING DEPARTMENT? 0.0000
-1.6812 THE ARCHITECTURE 0.0000
-1.6812 THE ART 0.0000
-1.6812 THE BIOLOGY 0.0000
-1.6812 THE BUSINESS 0.0000
-1.6812 THE CHEMISTRY 0.0000
-1.6812 THE COMPUTING 0.0000
-1.6812 THE DAY 0.0000
-1.6812 THE ENGINEERING 0.0000
-1.6812 THE ENGLISH 0.0000
-1.6812 THE GEOLOGY 0.0000
-1.6812 THE LABS? 0.0000
-1.6812 THE LIBRARY? 0.0000
-1.6812 THE MARINE 0.0000
-1.6812 THE MATHEMATICS 0.0000
-1.6812 THE MUSIC 0.0000
-1.6812 THE NEAREST 0.0000
-1.6812 THE PSYCHOLOGY 0.0000
-1.6812 THE RECEPTION? 0.0000
-1.6812 THE SPORTS 0.0000
-1.6812 THE STAFF? 0.0000
-1.6812 THE TEACHING 0.0000
-1.6812 THE TOILET? 0.0000
-1.6812 THE WASHROOM? 0.0000
-1.6812 THE WEATHER 0.0000
-0.3010 THERE </s> -0.3010
-0.7782 TO DO? 0.0000
-0.7782 TO EAT? 0.0000
-0.7782 TO ME? 0.0000
-0.3010 TODAY? </s> -0.3010
-0.3010 TOILET? </s> -0.3010
-0.3010 VISIT IN 0.0000
-0.3010 WASHROOM? </s> -0.3010
-0.3010 WEATHER TODAY? 0.0000
-1.0000 WHAT CAN -0.0492
-0.5229 WHAT IS 0.0000
-1.0000 WHAT TO -0.2218
-1.4314 WHERE ARE 0.0000
-0.4102 WHERE CAN -0.0492
-1.1303 WHERE IS -0.0580
-0.3010 WONDERFUL </s> -0.3010
-1.0000 YOU </s> -0.3010
-1.0000 YOU DOING 0.0000
-1.0000 YOU HELP? 0.0000
-1.0000 YOU REALLY 0.0000
-1.0000 YOU TALK 0.0000
-0.3010 YOUR NAME? 0.0000

\3-grams:
-0.3010 <s> AMAZING </s>
-0.3010 <s> ASSISTANCE </s>
-0.3010 <s> BYE! CHARLIE
-0.3010 <s> CAN YOU
-0.3010 <s> CHEERS </s>
-0.3010 <s> CONTINUE SPEECH
-0.3010 <s> CUTE </s>
-0.3010 <s> GOODBYE </s>
-0.3010 <s> HELLO </s>
-0.6021 <s> HELP </s>
-0.6021 <s> HELP ME
-0.3010 <s> HEY THERE
-0.3010 <s> HI </s>
-0.6021 <s> HOW CAN
-0.6021 <s> HOW YOU
-0.3010 <s> PAUSE SPEECH
-0.3010 <s> SEE YOU
-0.3010 <s> SHOP </s>
-0.3010 <s> SO CUTE
-0.9031 <s> WHAT CAN
-0.4260 <s> WHAT IS
-1.4314 <s> WHERE ARE
-0.4102 <s> WHERE CAN
-1.1303 <s> WHERE IS
-0.3010 <s> WONDERFUL </s>
-0.3010 A BOOK? </s>
-0.3010 A CAFE ON
-0.3010 ABOUT ROBOTICS OR
-0.3010 ARCHITECTURE DEPARTMENT? </s>
-0.3010 ARE CASHPOINTS OR
-0.3010 ARE THE LABS?
-0.3010 ART DEPARTMENT? </s>
-0.3010 ATM OR CASH
-0.3010 BIOLOGY DEPARTMENT? </s>
-0.3010 BORROW A BOOK?
-0.3010 BUSINESS DEPARTMENT? </s>
-0.3010 BYE! CHARLIE </s>
-0.3010 CAFE ON CAMPUS?
-1.6435 CAN I BORROW
-0.3424 CAN I FIND
-1.6435 CAN I VISIT
-0.7782 CAN YOU HELP?
-0.7782 CAN YOU REALLY
-0.7782 CAN YOU TALK
-0.3010 CASH MACHINES? </s>
-0.3010 CASHPOINTS OR ATM
-0.3010 CHEMISTRY FACULTY? </s>
-0.3010 COFFEE OR SOMETHING
-0.3010 COMPUTING DEPARTMENT? </s>
-0.3010 CONTINUE SPEECH </s>
-0.3010 DAY TODAY? </s>
-0.3010 ENGINEERING DEPARTMENT? </s>
-0.3010 ENGLISH FACULTY? </s>
-0.3010 FIND A CAFE
-0.3010 FIND ABOUT ROBOTICS
-0.3010 FIND TEA OR
-1.5315 FIND THE ARCHITECTURE
-1.5315 FIND THE ART
-1.5315 FIND THE BIOLOGY
-1.5315 FIND THE BUSINESS
-1.5315 FIND THE CHEMISTRY
-1.5315 FIND THE COMPUTING
-1.5315 FIND THE ENGINEERING
-1.5315 FIND THE ENGLISH
-1.5315 FIND THE GEOLOGY
-1.5315 FIND THE MARINE
-1.5315 FIND THE MATHEMATICS
-1.5315 FIND THE MUSIC
-1.5315 FIND THE PSYCHOLOGY
-1.5315 FIND THE RECEPTION?
-1.5315 FIND THE SPORTS
-1.5315 FIND THE STAFF?
-1.5315 FIND THE TEACHING
-0.3010 GEOGRAPHY DEPARTMENT? </s>
-0.3010 GEOLOGY OR GEOGRAPHY
-0.3010 HELP ME </s>
-0.3010 HEY THERE </s>
-0.3010 HOW CAN YOU
-0.3010 HOW YOU DOING
-0.3010 I BORROW A
-1.6021 I FIND A
-1.6021 I FIND ABOUT
-1.6021 I FIND TEA
-0.3716 I FIND THE
-0.3010 I VISIT IN
-0.3010 IN PLYMOUTH OR
-1.0792 IS THE DAY
-1.0792 IS THE LIBRARY?
-1.0792 IS THE NEAREST
-1.0792 IS THE TOILET?
-1.0792 IS THE WASHROOM?
-1.0792 IS THE WEATHER
-0.3010 IS YOUR NAME?
-0.3010 MARINE DEPARTMENT? </s>
-0.3010 MATHEMATICS FACULTY? </s>
-0.3010 MUSIC FACULTY? </s>
-0.3010 NEAREST SUPERMARKET? </s>
-0.3010 ON CAMPUS? </s>
-0.3010 OR ATM OR
-0.3010 OR CASH MACHINES?
-0.3010 OR COFFEE OR
-0.3010 OR GEOGRAPHY DEPARTMENT?
-0.3010 OR ROBOTS? </s>
-0.3010 OR SOMETHING TO
-0.3010 OR WHAT TO
-0.3010 PAUSE SPEECH </s>
-0.3010 PLYMOUTH OR WHAT
-0.3010 PSYCHOLOGY FACULTY? </s>
-0.3010 REALLY TALK? </s>
-0.3010 ROBOTICS OR ROBOTS?
-0.3010 SEE YOU </s>
-0.3010 SO CUTE </s>
-0.3010 SOMETHING TO EAT?
-0.3010 SPORTS DEPARTMENT? </s>
-0.3010 TALK TO ME?
-0.3010 TEA OR COFFEE
-0.3010 TEACHING DEPARTMENT? </s>
-0.3010 THE ARCHITECTURE DEPARTMENT?
-0.3010 THE ART DEPARTMENT?
-0.3010 THE BIOLOGY DEPARTMENT?
-0.3010 THE BUSINESS DEPARTMENT?
-0.3010 THE CHEMISTRY FACULTY?
-0.3010 THE COMPUTING DEPARTMENT?
-0.3010 THE DAY TODAY?
-0.3010 THE ENGINEERING DEPARTMENT?
-0.3010 THE ENGLISH FACULTY?
-0.3010 THE GEOLOGY OR
-0.3010 THE LABS? </s>
-0.3010 THE LIBRARY? </s>
-0.3010 THE MARINE DEPARTMENT?
-0.3010 THE MATHEMATICS FACULTY?
-0.3010 THE MUSIC FACULTY?
-0.3010 THE NEAREST SUPERMARKET?
-0.3010 THE PSYCHOLOGY FACULTY?
-0.3010 THE RECEPTION? </s>
-0.3010 THE SPORTS DEPARTMENT?
-0.3010 THE STAFF? </s>
-0.3010 THE TEACHING DEPARTMENT?
-0.3010 THE TOILET? </s>
-0.3010 THE WASHROOM? </s>
-0.3010 THE WEATHER TODAY?
-0.3010 TO DO? </s>
-0.3010 TO EAT? </s>
-0.3010 TO ME? </s>
-0.3010 VISIT IN PLYMOUTH
-0.3010 WEATHER TODAY? </s>
-0.3010 WHAT CAN I
-0.4771 WHAT IS THE
-0.7782 WHAT IS YOUR
-0.3010 WHAT TO DO?
-0.6021 WHERE ARE CASHPOINTS
-0.6021 WHERE ARE THE
-0.3010 WHERE CAN I
-0.3010 WHERE IS THE
-0.3010 YOU DOING </s>
-0.3010 YOU HELP? </s>
-0.3010 YOU REALLY TALK?
-0.3010 YOU TALK TO
-0.3010 YOUR NAME? </s>

\end\
